{"linear_layer_stack.0.weight": [[-0.04357406124472618, -0.12173812836408615, -0.04516611993312836, -0.0828477293252945, 0.2640169560909271, -0.2255389392375946, -0.11942530423402786, 0.24176399409770966, 0.04971243441104889, -0.2144283652305603, 0.09894777834415436, -0.22955110669136047], [0.18103870749473572, 0.032257091253995895, -0.019626164808869362, -0.15488958358764648, -0.16051968932151794, -0.09513746947050095, -0.026051945984363556, -0.14198905229568481, 0.07660721242427826, -0.1890515238046646, -0.10790854692459106, -0.17337805032730103], [0.02652653492987156, -0.27596408128738403, 0.23414646089076996, 0.19928498566150665, 0.2505172789096832, -0.11779574304819107, -0.012836541049182415, -0.011209414340555668, -0.08879213035106659, 0.10139323025941849, 0.09370871633291245, -0.17921921610832214], [-0.026791609823703766, -0.22813744843006134, 0.1214139312505722, 0.1559101790189743, 0.029369503259658813, -0.242266446352005, -0.11396700143814087, 0.1680036187171936, -0.1271275132894516, 0.038450490683317184, -0.21131791174411774, -0.045263875275850296], [-0.1764800101518631, -0.24285121262073517, -0.15931633114814758, -0.10908202081918716, 0.24735990166664124, 0.2463173121213913, 0.11614537984132767, 0.1607896089553833, 0.09502780437469482, -0.12977826595306396, 0.12781447172164917, -0.014455003663897514], [-0.19572380185127258, -0.04559601470828056, 0.1559869647026062, -0.03767286613583565, 0.012798634357750416, 0.08556345105171204, 0.1007436215877533, -0.22016718983650208, -0.16285893321037292, 0.14471974968910217, 0.20164866745471954, -0.08860905468463898], [0.15330485999584198, 0.07189026474952698, 0.22094693779945374, 0.1216808333992958, -0.013959418050944805, 0.22278837859630585, -0.12642894685268402, -0.03253263235092163, 0.08807116746902466, 0.16259612143039703, -0.26194390654563904, -0.012228709645569324], [0.24831636250019073, 0.26655635237693787, 0.15807238221168518, 0.14114564657211304, 0.07589039206504822, -0.195320263504982, 0.052196163684129715, -0.11383146047592163, 0.029996588826179504, -0.22559115290641785, 0.03902279585599899, -0.04332109913229942]], "linear_layer_stack.0.bias": [0.09207537025213242, -0.21514268219470978, 0.09975689649581909, 0.09324119240045547, 0.17825515568256378, 0.21807806193828583, -0.01365913450717926, -0.10000718384981155], "linear_layer_stack.2.weight": [[-0.28319501876831055, -0.05164644122123718, 0.2789769768714905, 0.32747018337249756, -0.1067669689655304, 0.05944820120930672, -0.18578460812568665, -0.05117014795541763], [-0.1872216761112213, -0.11529353260993958, -0.3418113887310028, 0.050936032086610794, 0.18366914987564087, 0.07947000116109848, -0.21016478538513184, 0.16468960046768188], [0.3493102490901947, 0.350741446018219, -0.32552266120910645, -0.07135650515556335, 0.07059633731842041, 0.06852443516254425, -0.2720196843147278, 0.19100269675254822], [0.13609647750854492, 0.07739393413066864, 0.07532141357660294, 0.23659315705299377, -0.1319485455751419, -0.16063044965267181, -0.16002626717090607, 0.34684088826179504], [0.32808804512023926, 0.12889763712882996, -0.15854640305042267, 0.15589013695716858, 0.25450703501701355, -0.21216808259487152, -0.2736823260784149, -0.1978372037410736], [-0.1254134327173233, -0.08224139362573624, -0.31787654757499695, -0.20760633051395416, 0.31970399618148804, 0.01943286694586277, -0.035857632756233215, -0.19210538268089294], [-0.09208910912275314, 0.018319806084036827, 0.09646651893854141, 0.18448804318904877, -0.040745753794908524, -0.25455281138420105, 0.21350011229515076, -0.22070887684822083], [-0.041257042437791824, -0.2115495204925537, -0.0975116640329361, 0.19275249540805817, 0.16819079220294952, -0.08449393510818481, -0.041294217109680176, -0.19636929035186768]], "linear_layer_stack.2.bias": [0.2143019437789917, 0.11745119839906693, 0.2613488733768463, -0.004609465599060059, 0.28047975897789, 0.18593955039978027, -0.06279350072145462, -0.25401389598846436], "linear_layer_stack.4.weight": [[0.04136601462960243, 0.18150858581066132, 0.08425939083099365, 0.09246694296598434, 0.34115803241729736, -0.1956387609243393, 0.06864069402217865, 0.3041403293609619]], "linear_layer_stack.4.bias": [-0.3100259304046631]}